//   This file contains the saved neural networks for the project   //
// ---------------------------------------------------------------- //

// net 1.0
// Generation: 16
// Fitness: 579309.4437758772
// Structure: [11, 16, 8, 4, 1]
// Date of creation: April 17, 2025

// Notes:
// - This neural network's input includes opponent's position
//   due to this it may not be as strong against real players

let net_1 = [
    [
      {
        "weights": [
          -0.6506428626637817,
          0.040197555269971375,
          -1.0073810918336275,
          0.24773384524061437,
          -0.2774474910277078,
          -0.9633222286305259,
          -0.11998953048805983,
          -0.9674765993571826,
          0.9456068403234716,
          0.9166209776438969,
          1.0790992187434776,
          0.7226266074580898,
          0.7774473999187477,
          -0.9385513736562872,
          0.5056813106810043,
          1.4760984032948996
        ],
        "bias": 0.4712827072248711,
        "output": 0.5549001891761698
      },
      {
        "weights": [
          -0.6803015127984096,
          0.8039160590125434,
          0.557963412915361,
          0.5839496321922126,
          0.015729344085953167,
          -0.4017047459329848,
          -0.25185452277663356,
          0.4042356641864262,
          0.06126159694514777,
          -0.6678074595436096,
          -0.4427243887214971,
          -0.5417423847179386,
          0.09974604794758535,
          -0.49472459937579005,
          0.9612460453680547,
          -0.38979441271696347
        ],
        "bias": 0.004621590994605018,
        "output": 0.3416241523886822
      },
      {
        "weights": [
          0.3226223737632765,
          -0.7671168154286829,
          -0.9095365293191378,
          0.23029157904986453,
          -0.07481874154329371,
          0.13053523646775256,
          0.13796793617683067,
          -0.42963021238236054,
          -0.9837925781231498,
          -0.9339904157611705,
          0.7906064831860229,
          0.38798007081171404,
          -0.8543872179267065,
          0.11595468024438449,
          0.32803564289393194,
          0.9800822810584682
        ],
        "bias": 0.0978380937148211,
        "output": 0.02563201147250103
      },
      {
        "weights": [
          -0.4230128926426615,
          0.19726165791871275,
          -0.4106336575155831,
          0.2028986055420059,
          -0.01710198427131049,
          0.501931558808784,
          0.6690259879361731,
          0.10986138370586684,
          -1.1210393288947424,
          0.7852441534185985,
          0.8391880375416254,
          -0.6341326663487761,
          0.6545232634339468,
          -0.3292770440310362,
          -0.91206299014239,
          1.2683180098393376
        ],
        "bias": -0.5871688772693291,
        "output": 0.505241985314073
      },
      {
        "weights": [
          1.0928209090165386,
          0.24074413241438197,
          0.21043966171915107,
          -0.7194111954470155,
          -0.37065405238716176,
          -0.7783247313903949,
          -0.5030350260357421,
          -0.3987154200297067,
          1.9023550224452415,
          0.7873008683884695,
          0.5339468124632087,
          0.630076655068537,
          0.11115798553403078,
          -0.36976234994873924,
          0.7355490554222965,
          0.6004820117368752
        ],
        "bias": -0.24382532929034295,
        "output": -0.7660661713683303
      },
      {
        "weights": [
          0.20494666264319106,
          -0.6856030156515274,
          -1.2775531621783296,
          0.43671145006246737,
          0.6319576317263849,
          0.5103289550971941,
          0.11140578327831685,
          0.8669160590771057,
          1.1886908991585148,
          -1.2121955625911522,
          0.9883695185256955,
          0.7940908165437044,
          0.46400352759891184,
          0.07395161727284072,
          0.40637651808144226,
          -0.8550665246722708
        ],
        "bias": -1.7017383420299388,
        "output": 0.6427617140784506
      },
      {
        "weights": [
          -0.04997614558441499,
          0.6159969822636837,
          0.8410184475284468,
          0.6658184318010649,
          -0.14923833137649756,
          -0.24100426591298318,
          -1.5714608533368601,
          2.4985054804445532,
          -0.9348446112516042,
          1.1540069145429266,
          1.1698209385008909,
          -0.6260270588829495,
          -0.6426095770805285,
          -0.42428867928518277,
          -0.8243214972798896,
          -1.862942389101334
        ],
        "bias": 0.11117314891676355,
        "output": -0.03436798852749896
      },
      {
        "weights": [
          0.48214102820240456,
          -0.9734427771106049,
          -0.645465470275516,
          1.4984024194204666,
          0.7909747717714617,
          -0.43381989701591994,
          -0.904089236682718,
          -0.15037903321894142,
          0.403511566957802,
          -1.3140636221335331,
          0.3024689331291468,
          0.6614872034427466,
          -0.03882959160114763,
          -0.7399229488412471,
          1.443552973675591,
          -0.9004810590140295
        ],
        "bias": -0.2379523493685427,
        "output": 0.9143679885274989
      },
      {
        "weights": [
          -1.2328936129393875,
          0.5579576695783042,
          -0.6389285113986749,
          -0.6406872096863261,
          -0.2844833300990457,
          0.27206654533026464,
          1.1053965607988654,
          0.6553572675906485,
          -0.08838983411358292,
          -0.13475176308694548,
          0.9092962219207581,
          0.177682640164621,
          0.2785906338119706,
          0.5516445520726003,
          0.2517605741716811,
          0.5550116004830143
        ],
        "bias": -1.7323771773992551,
        "output": -0.19965820386209673
      },
      {
        "weights": [
          1.0436862321116434,
          0.08261861794098446,
          -0.780770958126447,
          0.20875064202628968,
          -0.4163955631538505,
          1.3686660993485409,
          -0.35819656987578896,
          -1.3112975422791135,
          0.8041258500436654,
          -0.8904241283297232,
          -0.24266896139369587,
          0.9702024058022625,
          0.12695206267807935,
          -0.6998056832492363,
          -1.3150373320087843,
          -0.8179544490483237
        ],
        "bias": -0.010110563400318906,
        "output": 0.013617832925390812
      },
      {
        "weights": [
          -0.057535393762287335,
          0.4089595547951337,
          -0.34694910026667114,
          -1.9293918092881115,
          -1.071064158883375,
          -0.669396868352339,
          0.3187080087068477,
          1.1319842585955746,
          -0.6228733979814127,
          0.7663843893971081,
          -1.651732033129228,
          -0.32759961272207594,
          -0.4541446958641173,
          0.5460715195122379,
          0.781225750990753,
          -0.707352053427071
        ],
        "bias": 0.3255785283323831,
        "output": 0
      }
    ],
    [
      {
        "weights": [
          -0.43875582623452125,
          -0.7115462028919568,
          0.8159736500063848,
          0.4917377107084677,
          -0.2415558071654298,
          0.745950176095793,
          -0.8254743017877566,
          -0.05548144656513232
        ],
        "bias": 0.9416012369348512,
        "output": 0.14019825757515791
      },
      {
        "weights": [
          -0.30182476580555484,
          0.3317528883618748,
          0.6162476299536173,
          1.1829342204605244,
          -0.7403070808964585,
          0.40544378111292856,
          0.3239697540451776,
          -0.09415911470047522
        ],
        "bias": 0.7030534638747523,
        "output": 0
      },
      {
        "weights": [
          -0.05936910157880071,
          0.09434206621238483,
          -0.4341851854177974,
          -0.6018953047538853,
          -0.6366727076791401,
          -0.31929210332655367,
          0.8928923590826481,
          0.5668202710198957
        ],
        "bias": 0.1222850345261115,
        "output": 0
      },
      {
        "weights": [
          -0.38249057621622096,
          0.02712225940369639,
          0.7346609561780639,
          -0.5074777151369494,
          -0.6444182451777525,
          0.9694167424466598,
          0.93355299866329,
          0.660887187876628
        ],
        "bias": -0.4907857184530531,
        "output": 2.2643764031990896
      },
      {
        "weights": [
          -1.0437607230021428,
          0.4573344922304845,
          -0.5917502338491871,
          -1.0736677889041337,
          0.18604371997729863,
          0.12305648692895055,
          -1.8786086619664926,
          1.0864393783947275
        ],
        "bias": -0.17499355665146332,
        "output": 1.1355096658196175
      },
      {
        "weights": [
          -0.18704533143209878,
          -0.8410558951970619,
          -0.8266168444787871,
          0.11907121846919133,
          -0.9601282399436466,
          0.048640992175989606,
          0.9386243853604399,
          -0.22470533055683362
        ],
        "bias": -0.5137910798341652,
        "output": 0
      },
      {
        "weights": [
          -0.6551667846235374,
          0.34309734817354065,
          -1.2039221004307579,
          0.039471402544871914,
          0.49609545492783536,
          -0.33186241601679156,
          0.02197745333235268,
          -1.9232294688903613
        ],
        "bias": 0.44680030930894743,
        "output": 0.09445874990173453
      },
      {
        "weights": [
          0.28090698601749753,
          0.09505114224616751,
          -1.247197863656314,
          0.8217507050961499,
          -0.27426039616963216,
          -0.003044639672276528,
          1.3029247089515605,
          -0.16214830879573783
        ],
        "bias": 0.4884847274413022,
        "output": 0.6248107224495645
      },
      {
        "weights": [
          -0.2703910373681149,
          -0.5721465404433346,
          -0.1432947373593303,
          -1.349735438106381,
          -0.7392725934326101,
          0.7374486204507196,
          -0.689126819896295,
          0.5682380807005516
        ],
        "bias": 0.2847265044017091,
        "output": 0
      },
      {
        "weights": [
          -0.42858487678355295,
          0.36887038281156914,
          1.3027511330148012,
          0.4843471463441684,
          -0.841410025299274,
          -0.8505660491214844,
          0.25252340362561565,
          0.4483353132865666
        ],
        "bias": 0.9035006868591868,
        "output": 0
      },
      {
        "weights": [
          0.8300884104285358,
          0.2151249689004029,
          1.3613100405283518,
          0.5994781814908541,
          1.0236309706767461,
          -0.9018561482618854,
          0.7164907915834355,
          0.42568549632672537
        ],
        "bias": -0.0020298785950914056,
        "output": 1.1675329396698102
      },
      {
        "weights": [
          1.698032056041893,
          0.00010593173814155143,
          -0.43714090202332323,
          -1.3031652231162587,
          0.16742049402542958,
          -0.5053677704934338,
          1.1912485294772857,
          0.4470901787442969
        ],
        "bias": -0.13118990931094054,
        "output": 0.406102746664755
      },
      {
        "weights": [
          0.2520974032927006,
          0.5913382266304843,
          -0.8272647050820523,
          0.8964938501558539,
          -0.5580590687052096,
          -0.6525683396727053,
          0.47501142195626667,
          0.11286367556755539
        ],
        "bias": 0.2699081299879502,
        "output": 1.1899583682086714
      },
      {
        "weights": [
          -0.2723297010113328,
          -0.2993835247860379,
          -1.6699494346629808,
          1.08244270108451,
          0.3770661809308238,
          0.021143099801645304,
          0.21636881401785746,
          -0.19037231317867276
        ],
        "bias": -0.4434904151337846,
        "output": 0
      },
      {
        "weights": [
          0.6142599417156025,
          -0.36739305277793743,
          -0.11599667342865261,
          -0.4339714089289355,
          -0.8881352790893722,
          0.5004273224835705,
          -0.26366575022919325,
          0.30177654029728407
        ],
        "bias": 0.29785156339215657,
        "output": 1.4322536778248296
      },
      {
        "weights": [
          0.10686157215434133,
          -1.0292893427809902,
          -0.24017054450520647,
          -0.7027549222258265,
          -0.47266459333834576,
          0.1311759544024016,
          0.1381556897542382,
          -0.6106964153356671
        ],
        "bias": -0.35810781799064184,
        "output": 0
      }
    ],
    [
      {
        "weights": [
          1.049724321048189,
          0.8411121514300033,
          -0.012171950239447948,
          -0.28737067216786305
        ],
        "bias": 0.16606250335882522,
        "output": 1.0053666566513466
      },
      {
        "weights": [
          -0.731223639714816,
          -0.3619497059364545,
          -0.8605262319665956,
          0.3640661542251833
        ],
        "bias": -0.6603615416979467,
        "output": 0.34107750724614516
      },
      {
        "weights": [
          -0.3750179562959548,
          0.32528808672812404,
          0.966868367989598,
          -0.42906540888855194
        ],
        "bias": -0.051641497603949205,
        "output": 0.42268680653350493
      },
      {
        "weights": [
          0.8330646513715505,
          0.959809431923893,
          -1.474648785350272,
          0.6867373327483326
        ],
        "bias": 0.8567040443497176,
        "output": 0
      },
      {
        "weights": [
          0.36909522623281665,
          0.4018931527681977,
          -0.023845912152566262,
          1.3478026689844875
        ],
        "bias": 0.6301330861996128,
        "output": 0
      },
      {
        "weights": [
          1.3812822687830404,
          0.05499848857833767,
          1.2992916120738112,
          -0.05243712165766046
        ],
        "bias": -0.9251317298322677,
        "output": 0.16308749631350294
      },
      {
        "weights": [
          -0.5451033771724185,
          0.2091162351046265,
          -1.181768763085763,
          1.3724381853558023
        ],
        "bias": 0.1980381865778087,
        "output": 2.387105982606989
      },
      {
        "weights": [
          -0.030871569187753023,
          -0.32092479513532757,
          1.1593816726966104,
          0.7905320864481737
        ],
        "bias": 0.6420390569943655,
        "output": 4.326532593815172
      }
    ],
    [
      {
        "weights": [
          -0.28159895938996704
        ],
        "bias": -0.965326533448603,
        "output": 0
      },
      {
        "weights": [
          -0.10344020283231625
        ],
        "bias": -0.29579655246826686,
        "output": 0
      },
      {
        "weights": [
          -0.502980692563755
        ],
        "bias": 1.0069342938692432,
        "output": 3.516866908804789
      },
      {
        "weights": [
          0.3779735547183165
        ],
        "bias": 0.57462699840379,
        "output": 6.916394997996276
      }
    ],
    [
      {
        "weights": [],
        "bias": 0.18622477045737051,
        "output": 1.0315230202408219
      }
    ] 
];